digraph Tree {
node [shape=box] ;
0 [label="X[4] <= 0.5\ngini = 0.389\nsamples = 4930\nvalue = [3628, 1302]"] ;
1 [label="X[2] <= 0.5\ngini = 0.126\nsamples = 2207\nvalue = [2058, 149]"] ;
0 -> 1 [labeldistance=2.5, labelangle=45, headlabel="True"] ;
2 [label="X[1] <= 0.5\ngini = 0.073\nsamples = 1547\nvalue = [1488, 59]"] ;
1 -> 2 ;
3 [label="X[0] <= 2.5\ngini = 0.028\nsamples = 709\nvalue = [699, 10]"] ;
2 -> 3 ;
4 [label="X[0] <= 1.5\ngini = 0.231\nsamples = 15\nvalue = [13, 2]"] ;
3 -> 4 ;
5 [label="gini = 0.0\nsamples = 11\nvalue = [11, 0]"] ;
4 -> 5 ;
6 [label="gini = 0.5\nsamples = 4\nvalue = [2, 2]"] ;
4 -> 6 ;
7 [label="X[6] <= 0.5\ngini = 0.023\nsamples = 694\nvalue = [686, 8]"] ;
3 -> 7 ;
8 [label="gini = 0.018\nsamples = 660\nvalue = [654, 6]"] ;
7 -> 8 ;
9 [label="gini = 0.111\nsamples = 34\nvalue = [32, 2]"] ;
7 -> 9 ;
10 [label="X[3] <= 0.5\ngini = 0.11\nsamples = 838\nvalue = [789, 49]"] ;
2 -> 10 ;
11 [label="X[0] <= 23.5\ngini = 0.187\nsamples = 278\nvalue = [249, 29]"] ;
10 -> 11 ;
12 [label="gini = 0.397\nsamples = 44\nvalue = [32, 12]"] ;
11 -> 12 ;
13 [label="gini = 0.135\nsamples = 234\nvalue = [217, 17]"] ;
11 -> 13 ;
14 [label="X[0] <= 66.5\ngini = 0.069\nsamples = 560\nvalue = [540, 20]"] ;
10 -> 14 ;
15 [label="gini = 0.092\nsamples = 372\nvalue = [354, 18]"] ;
14 -> 15 ;
16 [label="gini = 0.021\nsamples = 188\nvalue = [186, 2]"] ;
14 -> 16 ;
17 [label="X[6] <= 0.5\ngini = 0.236\nsamples = 660\nvalue = [570, 90]"] ;
1 -> 17 ;
18 [label="X[0] <= 59.5\ngini = 0.176\nsamples = 471\nvalue = [425, 46]"] ;
17 -> 18 ;
19 [label="X[0] <= 51.5\ngini = 0.257\nsamples = 185\nvalue = [157, 28]"] ;
18 -> 19 ;
20 [label="gini = 0.171\nsamples = 127\nvalue = [115, 12]"] ;
19 -> 20 ;
21 [label="gini = 0.4\nsamples = 58\nvalue = [42, 16]"] ;
19 -> 21 ;
22 [label="X[0] <= 71.5\ngini = 0.118\nsamples = 286\nvalue = [268, 18]"] ;
18 -> 22 ;
23 [label="gini = 0.155\nsamples = 201\nvalue = [184, 17]"] ;
22 -> 23 ;
24 [label="gini = 0.023\nsamples = 85\nvalue = [84, 1]"] ;
22 -> 24 ;
25 [label="X[0] <= 68.5\ngini = 0.357\nsamples = 189\nvalue = [145, 44]"] ;
17 -> 25 ;
26 [label="X[0] <= 39.5\ngini = 0.407\nsamples = 148\nvalue = [106, 42]"] ;
25 -> 26 ;
27 [label="gini = 0.492\nsamples = 32\nvalue = [18, 14]"] ;
26 -> 27 ;
28 [label="gini = 0.366\nsamples = 116\nvalue = [88, 28]"] ;
26 -> 28 ;
29 [label="X[7] <= 0.5\ngini = 0.093\nsamples = 41\nvalue = [39, 2]"] ;
25 -> 29 ;
30 [label="gini = 0.198\nsamples = 9\nvalue = [8, 1]"] ;
29 -> 30 ;
31 [label="gini = 0.061\nsamples = 32\nvalue = [31, 1]"] ;
29 -> 31 ;
32 [label="X[2] <= 0.5\ngini = 0.488\nsamples = 2723\nvalue = [1570, 1153]"] ;
0 -> 32 [labeldistance=2.5, labelangle=-45, headlabel="False"] ;
33 [label="X[0] <= 4.5\ngini = 0.403\nsamples = 1221\nvalue = [879, 342]"] ;
32 -> 33 ;
34 [label="X[1] <= 0.5\ngini = 0.487\nsamples = 483\nvalue = [280, 203]"] ;
33 -> 34 ;
35 [label="X[0] <= 1.5\ngini = 0.394\nsamples = 178\nvalue = [130, 48]"] ;
34 -> 35 ;
36 [label="gini = 0.458\nsamples = 107\nvalue = [69, 38]"] ;
35 -> 36 ;
37 [label="gini = 0.242\nsamples = 71\nvalue = [61, 10]"] ;
35 -> 37 ;
38 [label="X[3] <= 0.5\ngini = 0.5\nsamples = 305\nvalue = [150, 155]"] ;
34 -> 38 ;
39 [label="gini = 0.497\nsamples = 253\nvalue = [116, 137]"] ;
38 -> 39 ;
40 [label="gini = 0.453\nsamples = 52\nvalue = [34, 18]"] ;
38 -> 40 ;
41 [label="X[6] <= 0.5\ngini = 0.306\nsamples = 738\nvalue = [599, 139]"] ;
33 -> 41 ;
42 [label="X[0] <= 16.5\ngini = 0.252\nsamples = 515\nvalue = [439, 76]"] ;
41 -> 42 ;
43 [label="gini = 0.304\nsamples = 251\nvalue = [204, 47]"] ;
42 -> 43 ;
44 [label="gini = 0.196\nsamples = 264\nvalue = [235, 29]"] ;
42 -> 44 ;
45 [label="X[0] <= 22.5\ngini = 0.405\nsamples = 223\nvalue = [160, 63]"] ;
41 -> 45 ;
46 [label="gini = 0.463\nsamples = 132\nvalue = [84, 48]"] ;
45 -> 46 ;
47 [label="gini = 0.275\nsamples = 91\nvalue = [76, 15]"] ;
45 -> 47 ;
48 [label="X[0] <= 13.5\ngini = 0.497\nsamples = 1502\nvalue = [691, 811]"] ;
32 -> 48 ;
49 [label="X[0] <= 1.5\ngini = 0.421\nsamples = 675\nvalue = [203, 472]"] ;
48 -> 49 ;
50 [label="X[7] <= 0.5\ngini = 0.214\nsamples = 164\nvalue = [20, 144]"] ;
49 -> 50 ;
51 [label="gini = 0.189\nsamples = 151\nvalue = [16, 135]"] ;
50 -> 51 ;
52 [label="gini = 0.426\nsamples = 13\nvalue = [4, 9]"] ;
50 -> 52 ;
53 [label="X[5] <= 0.5\ngini = 0.46\nsamples = 511\nvalue = [183, 328]"] ;
49 -> 53 ;
54 [label="gini = 0.498\nsamples = 105\nvalue = [49, 56]"] ;
53 -> 54 ;
55 [label="gini = 0.442\nsamples = 406\nvalue = [134, 272]"] ;
53 -> 55 ;
56 [label="X[6] <= 0.5\ngini = 0.484\nsamples = 827\nvalue = [488, 339]"] ;
48 -> 56 ;
57 [label="X[0] <= 47.5\ngini = 0.426\nsamples = 361\nvalue = [250, 111]"] ;
56 -> 57 ;
58 [label="gini = 0.459\nsamples = 266\nvalue = [171, 95]"] ;
57 -> 58 ;
59 [label="gini = 0.28\nsamples = 95\nvalue = [79, 16]"] ;
57 -> 59 ;
60 [label="X[0] <= 54.5\ngini = 0.5\nsamples = 466\nvalue = [238, 228]"] ;
56 -> 60 ;
61 [label="gini = 0.498\nsamples = 400\nvalue = [189, 211]"] ;
60 -> 61 ;
62 [label="gini = 0.382\nsamples = 66\nvalue = [49, 17]"] ;
60 -> 62 ;
}
