digraph Tree {
node [shape=box] ;
0 [label="X[5] <= 0.5\ngini = 0.483\nsamples = 5634\nvalue = [2301, 3333]"] ;
1 [label="gini = 0.0\nsamples = 2301\nvalue = [2301, 0]"] ;
0 -> 1 [labeldistance=2.5, labelangle=45, headlabel="True"] ;
2 [label="gini = 0.0\nsamples = 3333\nvalue = [0, 3333]"] ;
0 -> 2 [labeldistance=2.5, labelangle=-45, headlabel="False"] ;
}
